{"weights":[[[0.3210370689847003,1.0650722305858673,-0.07129120880651388,0.19020014151552755,0.502623982357591],[-1.2462236519247125,0.38544235486898437,-0.7010565606263475,0.10001527126612977,0.915197482703592],[-0.1775192343296839,0.4182568244846916,0.7167796934581292,-0.21607587425411356,-0.005824300777054236],[0.8628192627878072,0.5448510721285255,-0.10424855127010306,-0.9573300151477072,-0.9714794092386755],[-0.9537819094764421,-0.2559824066140098,-1.000986286233558,0.5847715407646363,0.9617394495301276],[-0.7867906958848416,-0.30633769592657045,-0.20655681844797458,-0.5540575002480165,-0.7972014090971575],[-0.5643888620525817,-0.6405264916570743,0.7245945725549687,-0.8680182300522907,-0.08950832128352718]],[[0.3320343759935398,-1.3573926532844298,0.35610734314146086,1.4898786364318428,-1.6255806696569355,0.288547306460562,0.6602186889526718],[0.331861701867782,1.138072893686649,-0.27751087109390093,-2.0978658460526445,0.571157765681328,1.0908000429525389,-0.3376944900806111],[0.055695824812803565,-0.8601229359306409,-0.2777657579546131,2.469469335474064,-1.9603169030958452,0.01853911508442911,0.605578545661709],[0.9123065954295683,-0.02832184764508373,0.5136403896163502,0.3900832689196983,-0.14430806499620358,0.03331809917224088,0.38684486929172635],[-0.5367896573835236,1.4213674449078282,0.8414227180375908,-2.1825418561835757,1.1787467653462758,-0.6149630696698333,0.055605112762037646]],[[-1.0729691109112214,1.2887398933895093,-2.136693050548962,-0.8237907698083472,2.048669369357985],[0.4853274270115844,0.9225880778914972,-0.941630944977463,-0.36998225447418753,-0.5334181100448673],[2.096679319732974,-1.8574525728772324,1.9403094660784892,0.7667513553961302,-1.7833498194168973],[-1.5684252264603233,0.9506197177775373,-2.103012440994026,-0.30163767218395027,2.134010940529809],[0.8142291803449987,0.620971968615012,0.3911632266625741,0.40004958277404884,-0.2246390896680286],[0.7569685803926521,-0.7511730900616925,1.4608294543238098,-0.36499916976835645,-0.7208171239610413],[-0.9519227577207656,-0.5403226723125849,-0.12617454514919743,-0.6706788804443766,0.8514960538449127]],[[4.170635500332366,0.5230057118450779,-5.330029102144527,4.361037049907485,-0.5815626342580313,-2.145321916123546,0.6107670016840827]]],"biases":[[-0.04361441791934484,-0.6320868049237567,0.5683344131105419,0.21091209661499966,0.4024519519648773,-0.34716363610282125,-0.8016898168734491],[-0.07299733618344505,0.40537501370290324,0.12011423468568463,0.5813146178483248,-0.24099245781394532],[0.6622744769836981,-0.6157137787437359,-0.9044207373162102,0.5588465057817859,-0.6938855429100369,0.22959890396536314,-0.10333277333453443],[-0.34970121950032257]]}