{"weights":[[[0.32301201167491866,1.067085817754137,-0.06923771750760231,0.19229226728869014,0.5047553724313723],[-1.2470471026738998,0.38177929358902707,-0.7082595978399036,0.08997381685325273,0.9019674283899645],[-0.17570668577476983,0.4198960221845469,0.7182344011724819,-0.21478030279100266,-0.0046934351304114925],[0.849408342492008,0.534817184089727,-0.11090528657452486,-0.9612871340959185,-0.9727368515919412],[-0.9584714891446975,-0.26185325281983446,-1.0081877158361403,0.5763898365606899,0.952102812295078],[-0.7865182738996749,-0.3060654105445831,-0.20628466998935027,-0.5537854882760417,-0.7969295337805155],[-0.5645366553229348,-0.64054454930945,0.7247281016818866,-0.8677550935963033,-0.08910465191769754]],[[0.3315686262182918,-1.351571484948849,0.35834248718165057,1.4821601745154065,-1.6191898960841438,0.2900723860655255,0.662575374804357],[0.3345297869474204,1.1332714843226,-0.2771813168605095,-2.0889019052744464,0.5658931802793474,1.0895024756359708,-0.3396615628764007],[0.055573900414438285,-0.8545573792034505,-0.2742595339061404,2.460971542601816,-1.9542483057521143,0.02052696774823482,0.6085713992121623],[0.9130890430179887,-0.026145738445898736,0.5146976465128975,0.38811025190859594,-0.14183458869199062,0.03351991076211421,0.3872332950337685],[-0.5362689300556839,1.4157163372225738,0.838653501043187,-2.173743236957428,1.172589890028488,-0.6167727197503151,0.052889343127901854]],[[-1.0633096185492705,1.2801303958317563,-2.1257717773025075,-0.8218499222673872,2.0391222737850483],[0.48886275403123824,0.9191944229188533,-0.9377348857857362,-0.3697712180595523,-0.5372246178965415],[2.088884015620514,-1.848884473362815,1.9311950249164964,0.766067925265893,-1.7740558021033739],[-1.5592868036650227,0.9419414101845918,-2.092605788909193,-0.3001534565990887,2.1244435606808976],[0.8092569894377339,0.6249231853642182,0.38574817368842446,0.3990706380542796,-0.22013943665545738],[0.746278461505198,-0.7399297512219231,1.4489245606416346,-0.3649752949186036,-0.7083180624470433],[-0.9488718484847708,-0.5445892686723915,-0.12274537196968759,-0.6716590462954009,0.8468111090569523]],[[4.136998035294815,0.5204331391817083,-5.281683743686187,4.327072305886618,-0.5661015909827224,-2.1102437886540435,0.6041064903054835]]],"biases":[[-0.039992052201672755,-0.6370862600619323,0.5681088515458579,0.20561377073473402,0.4056553940392991,-0.3469217350802087,-0.7981036802810081],[-0.06922093788664901,0.4044797958475028,0.12547210597749842,0.5827486565860263,-0.24544002139951404],[0.6633840020119801,-0.6157967273242214,-0.9041069177320368,0.5594464262383766,-0.6945753734598216,0.230695902367259,-0.10477390949341782],[-0.33696357685950074]]}